{
    "type": "LSTM",
    "options": {
        "inputSize": 10,
        "inputRange": 10,
        "hiddenLayers": [
            20,
            20
        ],
        "outputSize": 10,
        "decayRate": 0.999,
        "smoothEps": 1e-8,
        "regc": 0.000001,
        "clipval": 5,
        "maxPredictionLength": 100,
        "dataFormatter": {
            "indexTable": {
                "The History Of The Ubuntu Operating System Information Technology Essay": 0,
                " Ubuntu is a complete desktop Linux Operating System (OS), freely available with both public and professional support": 1,
                " The Ubuntu community is built on the ideas preserved in the Ubuntu platform, that software should be available free of charge, that software should also be usable by people in their own local language and despite any disabilities, and that people should have freedom to customize and change their software in whatever way they see it fit": 2,
                " Developers have access to all the source codes, thus being able to mix new functions easily or to find and remove programming viruses ‘quickly": 3,
                " So drivers for new adapters (Graphics Cards, SCSI Controller, etc": 4,
                ") can be combined very fast": 5,
                " Since Linux was brought in 1991 by a Finnish student named Linus Torvalds": 6,
                " During that time, it only able to run i386 systems, and was essentially an independently-created duplicate of the UNIX kernel, mostly the Linux was planned to take advantage of the then-new i386 architecture": 7,
                "": 8,
                "unrecognized": 9
            },
            "characterTable": {
                "0": "The History Of The Ubuntu Operating System Information Technology Essay",
                "1": " Ubuntu is a complete desktop Linux Operating System (OS), freely available with both public and professional support",
                "2": " The Ubuntu community is built on the ideas preserved in the Ubuntu platform, that software should be available free of charge, that software should also be usable by people in their own local language and despite any disabilities, and that people should have freedom to customize and change their software in whatever way they see it fit",
                "3": " Developers have access to all the source codes, thus being able to mix new functions easily or to find and remove programming viruses ‘quickly",
                "4": " So drivers for new adapters (Graphics Cards, SCSI Controller, etc",
                "5": ") can be combined very fast",
                "6": " Since Linux was brought in 1991 by a Finnish student named Linus Torvalds",
                "7": " During that time, it only able to run i386 systems, and was essentially an independently-created duplicate of the UNIX kernel, mostly the Linux was planned to take advantage of the then-new i386 architecture",
                "8": "",
                "9": null
            },
            "values": [
                [
                    "The History Of The Ubuntu Operating System Information Technology Essay",
                    " Ubuntu is a complete desktop Linux Operating System (OS), freely available with both public and professional support",
                    " The Ubuntu community is built on the ideas preserved in the Ubuntu platform, that software should be available free of charge, that software should also be usable by people in their own local language and despite any disabilities, and that people should have freedom to customize and change their software in whatever way they see it fit",
                    " Developers have access to all the source codes, thus being able to mix new functions easily or to find and remove programming viruses ‘quickly",
                    " So drivers for new adapters (Graphics Cards, SCSI Controller, etc",
                    ") can be combined very fast",
                    " Since Linux was brought in 1991 by a Finnish student named Linus Torvalds",
                    " During that time, it only able to run i386 systems, and was essentially an independently-created duplicate of the UNIX kernel, mostly the Linux was planned to take advantage of the then-new i386 architecture",
                    ""
                ]
            ],
            "characters": [
                "The History Of The Ubuntu Operating System Information Technology Essay",
                " Ubuntu is a complete desktop Linux Operating System (OS), freely available with both public and professional support",
                " The Ubuntu community is built on the ideas preserved in the Ubuntu platform, that software should be available free of charge, that software should also be usable by people in their own local language and despite any disabilities, and that people should have freedom to customize and change their software in whatever way they see it fit",
                " Developers have access to all the source codes, thus being able to mix new functions easily or to find and remove programming viruses ‘quickly",
                " So drivers for new adapters (Graphics Cards, SCSI Controller, etc",
                ") can be combined very fast",
                " Since Linux was brought in 1991 by a Finnish student named Linus Torvalds",
                " During that time, it only able to run i386 systems, and was essentially an independently-created duplicate of the UNIX kernel, mostly the Linux was planned to take advantage of the then-new i386 architecture",
                "",
                "unrecognized"
            ],
            "specialIndexes": [
                9
            ]
        }
    },
    "trainOpts": {
        "iterations": 5000,
        "errorThresh": 0.005,
        "log": false,
        "logPeriod": 10,
        "learningRate": 0.01,
        "callbackPeriod": 10,
        "timeout": "Infinity"
    },
    "input": {
        "rows": 11,
        "columns": 10,
        "weights": [
            -0.3418836295604706,
            0.10231316834688187,
            -0.41022372245788574,
            0.4868382215499878,
            0.3369218409061432,
            -0.48689642548561096,
            0.33658120036125183,
            1.2655038833618164,
            0.4179207682609558,
            0.23508834838867188,
            -0.03779468685388565,
            0.03188556060194969,
            -0.21234890818595886,
            0.4910271465778351,
            0.5776066780090332,
            -0.6695131659507751,
            0.5620049834251404,
            0.40576183795928955,
            0.526728093624115,
            0.26704832911491394,
            0.7817850708961487,
            -0.36490899324417114,
            1.1224299669265747,
            0.10552512854337692,
            -0.931736409664154,
            0.66181480884552,
            0.10481970757246017,
            0.18672345578670502,
            0.2945447862148285,
            0.179898202419281,
            0.12759935855865479,
            -0.3677712082862854,
            0.12645086646080017,
            0.2149532437324524,
            -0.5763759016990662,
            -0.8744395971298218,
            0.23421482741832733,
            0.01813836768269539,
            -0.009173105470836163,
            0.2889730632305145,
            -0.9486632943153381,
            0.6228891611099243,
            -1.019707202911377,
            -0.6832864284515381,
            0.31105855107307434,
            -0.02747475355863571,
            -0.7497615814208984,
            -0.609337568283081,
            -0.8427298069000244,
            -0.6687853932380676,
            -0.163267582654953,
            0.9290202856063843,
            -0.32799026370048523,
            -0.7353547215461731,
            0.09064829349517822,
            0.0636998787522316,
            -0.9301009178161621,
            -1.268487811088562,
            -1.1259187459945679,
            -0.7410609126091003,
            -0.7129821181297302,
            1.0181024074554443,
            -0.7149736881256104,
            -0.5256987810134888,
            1.3025336265563965,
            0.5445019006729126,
            -0.4737284481525421,
            -0.7566558122634888,
            -1.0708097219467163,
            -0.8061346411705017,
            0.008989624679088593,
            -0.15066614747047424,
            0.008802470751106739,
            -0.17624884843826294,
            0.10044561326503754,
            0.8429440855979919,
            0.25440409779548645,
            0.2938489317893982,
            -0.22430892288684845,
            -0.16767144203186035,
            0.5071090459823608,
            -0.42134055495262146,
            0.5086676478385925,
            0.26333892345428467,
            -0.3216046690940857,
            0.29160892963409424,
            0.2971284091472626,
            0.5539141297340393,
            0.32394227385520935,
            0.3300967216491699,
            -0.7449385523796082,
            0.8944697976112366,
            -0.6052225232124329,
            -0.3039502501487732,
            1.252399206161499,
            0.633154571056366,
            -0.13989496231079102,
            -0.04396720230579376,
            -0.3966626822948456,
            -0.7370439767837524,
            -0.07694866508245468,
            0.060838229954242706,
            0.014276663772761822,
            0.03841482475399971,
            0.0351470485329628,
            -0.040745820850133896,
            -0.02555382251739502,
            -0.05991080403327942,
            -0.033963870257139206,
            -0.0697982907295227
        ]
    },
    "hiddenLayers": [
        {
            "inputMatrix": {
                "rows": 20,
                "columns": 10,
                "weights": [
                    -0.6105066537857056,
                    0.7864242196083069,
                    -0.5766862034797668,
                    -0.6104072332382202,
                    0.8207210898399353,
                    0.268513023853302,
                    -0.4887852072715759,
                    -0.8539601564407349,
                    -0.8916863203048706,
                    -0.7312784194946289,
                    0.18700911104679108,
                    0.33467766642570496,
                    0.16295109689235687,
                    -0.29129213094711304,
                    0.007213382516056299,
                    0.19238190352916718,
                    -0.3256673216819763,
                    -0.49675899744033813,
                    -0.4874417781829834,
                    -0.2506161332130432,
                    -0.11515684425830841,
                    0.06897328794002533,
                    -0.23109059035778046,
                    -0.0724683478474617,
                    0.2623390257358551,
                    -0.20574305951595306,
                    -0.15158067643642426,
                    0.04132305830717087,
                    -0.16210293769836426,
                    0.02657090499997139,
                    -0.24580787122249603,
                    0.3765169382095337,
                    -0.30508264899253845,
                    -0.3397650718688965,
                    0.15223616361618042,
                    -0.07909981161355972,
                    -0.4195600748062134,
                    -0.487594336271286,
                    -0.5566130876541138,
                    -0.21876876056194305,
                    -0.7016363143920898,
                    0.9276134967803955,
                    -0.7439326643943787,
                    -0.8189051747322083,
                    0.380189448595047,
                    0.49223554134368896,
                    -0.7855591773986816,
                    -0.5471006631851196,
                    -0.6642341613769531,
                    -0.8670132756233215,
                    -0.027397213503718376,
                    0.2647448778152466,
                    -0.17508970201015472,
                    -0.14109936356544495,
                    0.12747496366500854,
                    -0.10573767125606537,
                    -0.25278154015541077,
                    -0.042090561240911484,
                    -0.2644164562225342,
                    -0.08044692128896713,
                    0.6236839890480042,
                    -0.6090152263641357,
                    0.8673959374427795,
                    0.48949506878852844,
                    -0.5225590467453003,
                    0.31690722703933716,
                    0.42478951811790466,
                    1.2398312091827393,
                    0.5646913647651672,
                    0.5309084057807922,
                    -0.22121088206768036,
                    0.21277883648872375,
                    0.09583857655525208,
                    -0.0016342521412298083,
                    0.3655889332294464,
                    0.32030126452445984,
                    0.08790235966444016,
                    -0.3293154537677765,
                    -0.38918337225914,
                    -0.21671567857265472,
                    -0.7163405418395996,
                    0.8095622658729553,
                    -0.8582490086555481,
                    -0.4943178594112396,
                    0.7317806482315063,
                    -0.5146949887275696,
                    -0.39885592460632324,
                    -0.32390832901000977,
                    -0.34321898221969604,
                    -0.6396626234054565,
                    -0.5040099024772644,
                    0.5333881378173828,
                    -0.40469124913215637,
                    -0.3942718803882599,
                    0.5145232081413269,
                    0.48509302735328674,
                    -0.41486069560050964,
                    -0.7803091406822205,
                    -0.7661382555961609,
                    -0.535652220249176,
                    -1.1465948820114136,
                    0.7042104005813599,
                    -1.258907437324524,
                    -0.39829394221305847,
                    0.6401126980781555,
                    -0.18135137856006622,
                    -0.6048383712768555,
                    0.5222441554069519,
                    -0.5755773186683655,
                    -0.5806727409362793,
                    -0.36530134081840515,
                    0.3785680830478668,
                    -0.4506949782371521,
                    -0.409054696559906,
                    0.436308354139328,
                    0.41113442182540894,
                    -0.39687517285346985,
                    -0.7421857118606567,
                    -0.9403353333473206,
                    -0.4496789574623108,
                    -0.09988781064748764,
                    0.4840608537197113,
                    -0.22722816467285156,
                    -0.34913089871406555,
                    0.2982788383960724,
                    -0.1737181544303894,
                    -0.5735172629356384,
                    -0.3017641305923462,
                    -0.3888297975063324,
                    -0.33046287298202515,
                    -1.2397756576538086,
                    0.8139677047729492,
                    -1.3145822286605835,
                    0.4697989523410797,
                    1.6002835035324097,
                    -0.6441978812217712,
                    0.26121529936790466,
                    0.5564942359924316,
                    0.3324728012084961,
                    -0.2089824676513672,
                    0.31873151659965515,
                    -0.0054246666841208935,
                    0.2336900383234024,
                    0.4111410677433014,
                    0.01864430122077465,
                    0.07509581744670868,
                    0.16958287358283997,
                    0.5840043425559998,
                    0.21200844645500183,
                    0.22480034828186035,
                    -0.5736918449401855,
                    0.2920398414134979,
                    -0.6709319353103638,
                    0.23305833339691162,
                    -0.1811974197626114,
                    -1.4595741033554077,
                    -0.01045627798885107,
                    0.48501765727996826,
                    -0.07789795845746994,
                    0.005726153496652842,
                    0.0015613253926858306,
                    0.07618985325098038,
                    -0.005597900133579969,
                    0.013622725382447243,
                    0.1625361144542694,
                    -0.20720039308071136,
                    -0.038845255970954895,
                    -0.3546972870826721,
                    -0.1489328294992447,
                    0.01700209267437458,
                    0.8130781054496765,
                    -0.4688173234462738,
                    0.6181597709655762,
                    0.9250952005386353,
                    -0.43839964270591736,
                    -0.6760451197624207,
                    0.7450071573257446,
                    1.4264791011810303,
                    1.5366878509521484,
                    0.7459210157394409,
                    0.0052206870168447495,
                    0.2711016833782196,
                    -0.013118097558617592,
                    0.024147531017661095,
                    0.08306977152824402,
                    -0.8162219524383545,
                    -0.17691251635551453,
                    -0.4062187671661377,
                    -0.22845664620399475,
                    -0.003793149720877409,
                    -0.31498783826828003,
                    -0.1809808760881424,
                    -0.32278919219970703,
                    -0.0071591646410524845,
                    0.11294301599264145,
                    0.005185988266021013,
                    -0.2091342955827713,
                    0.1119830384850502,
                    -0.03140509873628616,
                    0.3012869358062744
                ]
            },
            "inputHidden": {
                "rows": 20,
                "columns": 20,
                "weights": [
                    0.3771684467792511,
                    0.007440860383212566,
                    0.006872260477393866,
                    -0.12075009196996689,
                    -0.6672345399856567,
                    0.06901221722364426,
                    -0.17623277008533478,
                    0.38304585218429565,
                    -0.9351599812507629,
                    -0.18518520891666412,
                    0.07784417271614075,
                    -0.17309723794460297,
                    0.06255047768354416,
                    -0.09421675652265549,
                    -0.02179509960114956,
                    -0.31955182552337646,
                    0.082125723361969,
                    -0.1819930225610733,
                    0.02115270122885704,
                    0.1607709378004074,
                    -0.025330057367682457,
                    -0.471072793006897,
                    -0.4780890941619873,
                    1.18197500705719,
                    0.16704706847667694,
                    0.5880593657493591,
                    -0.5808605551719666,
                    -0.9061876535415649,
                    0.18946443498134613,
                    -0.6752373576164246,
                    0.8893405795097351,
                    -0.7599636316299438,
                    0.6370607018470764,
                    0.046130094677209854,
                    0.533450722694397,
                    -1.0454262495040894,
                    0.3782798945903778,
                    0.55617755651474,
                    0.7232255935668945,
                    0.27074307203292847,
                    -0.3825489282608032,
                    -0.13625022768974304,
                    -0.328193724155426,
                    0.8638316988945007,
                    0.4332035481929779,
                    0.45836466550827026,
                    0.21913041174411774,
                    -0.5188727378845215,
                    0.5398181080818176,
                    -0.6272129416465759,
                    0.9036388993263245,
                    -0.6791449785232544,
                    0.32046711444854736,
                    0.13723555207252502,
                    0.3177262544631958,
                    -0.9385015964508057,
                    0.5011745095252991,
                    0.42063266038894653,
                    0.396631121635437,
                    0.3835498094558716,
                    0.3466891944408417,
                    -0.7925866842269897,
                    -0.7669801115989685,
                    0.5050492882728577,
                    -0.13595299422740936,
                    0.4542848467826843,
                    -0.6447728872299194,
                    0.4403602182865143,
                    0.0790015235543251,
                    0.522546648979187,
                    0.18045417964458466,
                    0.4658336341381073,
                    0.96445631980896,
                    -0.07153704017400742,
                    0.5180558562278748,
                    -0.533812940120697,
                    0.5607582330703735,
                    0.7331489324569702,
                    0.7875229120254517,
                    0.01329584140330553,
                    0.9392840266227722,
                    -0.42057663202285767,
                    -0.325467973947525,
                    0.1849314272403717,
                    -0.7831088900566101,
                    -0.023656055331230164,
                    0.14614595472812653,
                    0.5732293128967285,
                    -0.4564148783683777,
                    0.3616211712360382,
                    0.05174034833908081,
                    0.2575799822807312,
                    0.14321836829185486,
                    -0.4586225748062134,
                    0.10304403305053711,
                    0.0109069449827075,
                    0.09878504276275635,
                    -0.05529937520623207,
                    0.38296517729759216,
                    0.2260446697473526,
                    -0.09517823904752731,
                    -0.16941389441490173,
                    -0.21322868764400482,
                    0.4328725337982178,
                    0.24176020920276642,
                    0.008856318891048431,
                    -0.17983809113502502,
                    -0.9420954585075378,
                    0.5928174257278442,
                    -0.7197710871696472,
                    0.9015368819236755,
                    -0.9217824339866638,
                    0.3281407356262207,
                    0.5275990962982178,
                    -0.24810002744197845,
                    -0.4612150490283966,
                    0.3802632987499237,
                    -0.5117815732955933,
                    0.4022199213504791,
                    0.018714407458901405,
                    -0.518135666847229,
                    0.09395328909158707,
                    0.09471200406551361,
                    -0.3182057738304138,
                    0.7216848134994507,
                    -0.06862781941890717,
                    0.19722621142864227,
                    0.21578313410282135,
                    0.8831296563148499,
                    0.4567432403564453,
                    0.030568048357963562,
                    0.24999022483825684,
                    0.10530543327331543,
                    0.3172118663787842,
                    -0.18516868352890015,
                    -0.04822498932480812,
                    -0.10589389503002167,
                    -0.3760632276535034,
                    -0.08433445543050766,
                    -0.17214618623256683,
                    0.9071727991104126,
                    -0.22518198192119598,
                    -0.24408191442489624,
                    0.030607350170612335,
                    -1.0523293018341064,
                    0.4224553406238556,
                    0.11441230028867722,
                    0.6072463393211365,
                    -1.1502034664154053,
                    0.07006422430276871,
                    0.3787134289741516,
                    0.24819867312908173,
                    0.1621771603822708,
                    -0.661199688911438,
                    0.4247167706489563,
                    -0.46598702669143677,
                    0.18141493201255798,
                    -0.18062807619571686,
                    -0.052289530634880066,
                    -0.15074048936367035,
                    1.4828381538391113,
                    0.13714255392551422,
                    0.14648060500621796,
                    -0.08400178700685501,
                    -0.774247944355011,
                    -0.44853800535202026,
                    0.5968086123466492,
                    0.6660034656524658,
                    -0.46225929260253906,
                    0.37837088108062744,
                    -0.027973832562565804,
                    0.1246548667550087,
                    -0.1564619541168213,
                    0.03299311175942421,
                    -0.4652954936027527,
                    0.18580125272274017,
                    -0.2866102159023285,
                    -0.26472753286361694,
                    0.028787562623620033,
                    0.0009451291989535093,
                    0.6344825029373169,
                    0.09755321592092514,
                    -0.01446738000959158,
                    -0.2564590275287628,
                    -0.8784721493721008,
                    -0.10120312869548798,
                    0.10039657354354858,
                    1.0664429664611816,
                    -1.0432626008987427,
                    0.03485281392931938,
                    0.007423593662679195,
                    -0.05949307978153229,
                    -0.044802840799093246,
                    0.02192728966474533,
                    0.006991473957896233,
                    -0.29474014043807983,
                    -0.13833509385585785,
                    -0.10964655876159668,
                    0.1764930784702301,
                    0.2778332531452179,
                    0.2604389786720276,
                    -0.3459300398826599,
                    -0.34581053256988525,
                    0.4308803975582123,
                    -0.1343689113855362,
                    0.23564663529396057,
                    -0.8286301493644714,
                    0.3143741488456726,
                    -0.003925689030438662,
                    0.1351347416639328,
                    -0.28030723333358765,
                    0.2212168276309967,
                    0.5238898992538452,
                    -0.5843691229820251,
                    0.32879897952079773,
                    -0.28957074880599976,
                    0.7928726077079773,
                    -0.08647823333740234,
                    0.857508659362793,
                    0.5368393659591675,
                    0.4601246416568756,
                    0.15450932085514069,
                    0.23115135729312897,
                    -0.049979228526353836,
                    -0.9925032258033752,
                    -0.12917529046535492,
                    0.41670727729797363,
                    0.5423035621643066,
                    -0.9606934785842896,
                    -0.22659151256084442,
                    0.18374550342559814,
                    -0.24059420824050903,
                    -0.09079667180776596,
                    -0.10835067927837372,
                    -0.12671884894371033,
                    -0.2631909251213074,
                    -0.14381705224514008,
                    -0.3299574851989746,
                    -0.01151491142809391,
                    0.5997304916381836,
                    0.0058327773585915565,
                    -0.4457395672798157,
                    -0.388873815536499,
                    0.7969986796379089,
                    -0.003038766561076045,
                    0.40026286244392395,
                    -0.28885409235954285,
                    -0.662213146686554,
                    0.16295725107192993,
                    -0.36486124992370605,
                    0.5225368142127991,
                    -0.30960705876350403,
                    0.5493122935295105,
                    -0.14720027148723602,
                    0.34325119853019714,
                    -0.8845736384391785,
                    0.5156213641166687,
                    0.2718639075756073,
                    0.3974508047103882,
                    0.4230780601501465,
                    -0.2721501588821411,
                    -0.0676167756319046,
                    0.13807806372642517,
                    0.29397112131118774,
                    -0.0029593065846711397,
                    0.23274429142475128,
                    0.04755881801247597,
                    -0.6624698638916016,
                    0.3139115869998932,
                    -0.5363507866859436,
                    0.016637466847896576,
                    -0.34378013014793396,
                    0.13777586817741394,
                    0.36735278367996216,
                    0.1526029109954834,
                    -0.2844744026660919,
                    -0.03957303613424301,
                    0.4085848033428192,
                    0.01720200665295124,
                    -0.14523671567440033,
                    -0.05447259545326233,
                    -0.21294069290161133,
                    -0.3863430321216583,
                    0.506070613861084,
                    0.18911224603652954,
                    0.2575564682483673,
                    -0.21264906227588654,
                    -0.7456284761428833,
                    0.4942328929901123,
                    -0.6408733129501343,
                    0.8668480515480042,
                    -0.768807053565979,
                    0.476020872592926,
                    0.6387633085250854,
                    0.11313899606466293,
                    -0.7494573593139648,
                    0.23000425100326538,
                    -0.39407339692115784,
                    0.30757468938827515,
                    0.16373208165168762,
                    0.11977768689393997,
                    -0.2587890028953552,
                    -0.30776482820510864,
                    0.6282531023025513,
                    -0.18305857479572296,
                    0.020573610439896584,
                    0.7519360184669495,
                    -0.5512357950210571,
                    0.3064371347427368,
                    -0.11304722726345062,
                    0.6019402742385864,
                    -0.7504971027374268,
                    0.3211941719055176,
                    -0.299069881439209,
                    -0.3995467722415924,
                    0.12551623582839966,
                    0.19776315987110138,
                    -1.7309949398040771,
                    0.17262184619903564,
                    0.7687031030654907,
                    -0.5083518624305725,
                    -0.2592598497867584,
                    -0.313618004322052,
                    0.6082935929298401,
                    0.46947455406188965,
                    0.47757354378700256,
                    0.12636420130729675,
                    -0.47011566162109375,
                    0.5156489014625549,
                    -0.464363694190979,
                    0.7510191798210144,
                    -0.2859185039997101,
                    0.35669443011283875,
                    0.017506126314401627,
                    0.42150142788887024,
                    -0.4531683623790741,
                    0.4530726671218872,
                    0.7330807447433472,
                    0.1961287260055542,
                    0.02015971951186657,
                    -0.7496246695518494,
                    -0.10990884900093079,
                    0.11677906662225723,
                    0.3813328146934509,
                    0.9547908902168274,
                    0.19371196627616882,
                    -0.6265714168548584,
                    -0.4060329794883728,
                    0.7515804171562195,
                    -0.30263978242874146,
                    0.27655282616615295,
                    -0.18653905391693115,
                    -0.10756531357765198,
                    1.3442472219467163,
                    0.30016881227493286,
                    0.2049616128206253,
                    0.017253832891583443,
                    0.270683616399765,
                    -0.11619077622890472,
                    -0.9821186661720276,
                    -0.2996360957622528,
                    -0.22659733891487122,
                    -0.3127973973751068,
                    0.9267086386680603,
                    0.2250780165195465,
                    0.660681426525116,
                    0.10119815170764923,
                    -0.07999196648597717,
                    0.08667022734880447,
                    -0.09311054646968842,
                    1.046787142753601,
                    0.013383964076638222,
                    0.12817920744419098,
                    -0.13464611768722534,
                    0.5860638618469238,
                    -0.9343858361244202,
                    0.46077290177345276,
                    0.8142098188400269,
                    -0.1397295892238617,
                    0.36842238903045654,
                    -0.8808013200759888,
                    0.8771553039550781,
                    0.7214289903640747,
                    -0.5552728176116943,
                    0.7508333921432495,
                    -0.543952226638794,
                    -0.3573385179042816,
                    -0.6745600700378418,
                    0.9976267218589783,
                    -0.6286673545837402,
                    0.12895649671554565,
                    -0.3885622024536133,
                    -0.2922540605068207,
                    0.4353167712688446,
                    -0.7386265993118286,
                    0.7249812483787537,
                    -0.5809114575386047,
                    -0.6833961009979248,
                    -0.3042214512825012,
                    -0.5434305667877197
                ]
            },
            "inputBias": {
                "rows": 20,
                "columns": 1,
                "weights": [
                    -0.21832911670207977,
                    -0.5147018432617188,
                    0.03662575036287308,
                    -0.40697965025901794,
                    -0.01544488687068224,
                    -0.030529381707310677,
                    0.6304072737693787,
                    -0.5387338995933533,
                    0.5327761769294739,
                    -0.821526825428009,
                    0.3639774024486542,
                    -0.5649654269218445,
                    -0.5822597146034241,
                    0.698341429233551,
                    0.5116995573043823,
                    0.5848096609115601,
                    -0.5695725679397583,
                    -0.01266174204647541,
                    -0.36763817071914673,
                    -0.09099055826663971
                ]
            },
            "forgetMatrix": {
                "rows": 20,
                "columns": 10,
                "weights": [
                    -0.1679258942604065,
                    0.27564099431037903,
                    -0.2769189774990082,
                    -0.4103051722049713,
                    0.4062176048755646,
                    0.13694320619106293,
                    -0.3613739609718323,
                    -0.3355776071548462,
                    -0.39895325899124146,
                    -0.3667214810848236,
                    0.6903128027915955,
                    -0.5363814234733582,
                    0.7431643009185791,
                    0.48512881994247437,
                    -0.6831036806106567,
                    -0.42193126678466797,
                    0.4703120291233063,
                    0.31934791803359985,
                    0.39678752422332764,
                    0.5065286159515381,
                    -0.21637730300426483,
                    0.38231122493743896,
                    -0.21346332132816315,
                    -0.18518172204494476,
                    0.22556361556053162,
                    0.22469757497310638,
                    -0.2338862121105194,
                    -0.6899675726890564,
                    -0.3324567377567291,
                    -0.2423916757106781,
                    0.4655819833278656,
                    -0.45594343543052673,
                    0.593886137008667,
                    0.2204059511423111,
                    -0.2613683044910431,
                    0.4521562159061432,
                    0.42187511920928955,
                    1.0017637014389038,
                    0.7351114153862,
                    0.380815714597702,
                    -0.6581263542175293,
                    1.1642329692840576,
                    -0.7444361448287964,
                    -0.6099718809127808,
                    0.5708082318305969,
                    0.35397136211395264,
                    -1.128599762916565,
                    -0.8992761969566345,
                    -0.45367056131362915,
                    -0.6521981954574585,
                    0.741360068321228,
                    -0.6466048359870911,
                    0.7112579345703125,
                    0.3222121596336365,
                    -0.7578558921813965,
                    -0.27300113439559937,
                    0.451339453458786,
                    0.05690888687968254,
                    0.4678383767604828,
                    0.4349823296070099,
                    -0.5194529891014099,
                    0.5229889154434204,
                    -0.5821148157119751,
                    -0.3809657096862793,
                    0.7028708457946777,
                    0.23630337417125702,
                    -0.41718751192092896,
                    -0.02074822224676609,
                    -0.26832231879234314,
                    -0.4885270893573761,
                    -0.2897604703903198,
                    0.44150230288505554,
                    -0.19761495292186737,
                    -0.5080990195274353,
                    0.45109936594963074,
                    0.9201591610908508,
                    -0.3540668487548828,
                    0.05272647738456726,
                    -0.4461246430873871,
                    -0.5107921957969666,
                    -0.6184981465339661,
                    1.1647242307662964,
                    -0.670413076877594,
                    -0.6912646889686584,
                    0.36856067180633545,
                    0.5904754996299744,
                    -0.8871321678161621,
                    -0.6769144535064697,
                    -0.548567533493042,
                    -0.7793849110603333,
                    -0.1447916477918625,
                    0.23207271099090576,
                    -0.18133266270160675,
                    -0.4231403172016144,
                    0.5162110328674316,
                    0.875066876411438,
                    -0.12440662086009979,
                    0.07776211202144623,
                    -0.30898424983024597,
                    -0.4542950689792633,
                    -0.2857934832572937,
                    0.520515501499176,
                    -0.32149404287338257,
                    -0.504223644733429,
                    0.3988022208213806,
                    0.6277624368667603,
                    -0.3686677813529968,
                    -0.3830888271331787,
                    -0.4968269169330597,
                    -0.5875405073165894,
                    -0.5315988659858704,
                    0.5299317240715027,
                    -0.5432426929473877,
                    -0.557295024394989,
                    0.6810823678970337,
                    0.7141450047492981,
                    -0.4098968505859375,
                    -0.4271758496761322,
                    -0.5973215699195862,
                    -0.6167284846305847,
                    -0.0012367406161502004,
                    0.2887856960296631,
                    0.0013774005929008126,
                    -0.3392848074436188,
                    -0.08069468289613724,
                    0.3693205416202545,
                    -0.34277263283729553,
                    -0.492569237947464,
                    -0.35348084568977356,
                    -0.2193736732006073,
                    -0.3376636803150177,
                    0.2794865071773529,
                    -0.6732103824615479,
                    0.2894982695579529,
                    0.9871059060096741,
                    -1.1865708827972412,
                    0.28943711519241333,
                    0.13866998255252838,
                    0.11824456602334976,
                    0.04534421116113663,
                    0.6071003079414368,
                    -0.656662106513977,
                    0.6827425360679626,
                    0.6431496739387512,
                    -0.6023306846618652,
                    -0.47212010622024536,
                    0.7247232794761658,
                    0.31300053000450134,
                    0.545847475528717,
                    0.6342309713363647,
                    -0.2893581986427307,
                    0.6580762267112732,
                    -0.2525937259197235,
                    -0.39109906554222107,
                    0.3140459358692169,
                    -0.3181437849998474,
                    -0.36184263229370117,
                    -0.5521575808525085,
                    -0.44217437505722046,
                    -0.45361220836639404,
                    0.13319534063339233,
                    -0.14022378623485565,
                    0.06307756155729294,
                    0.05924781784415245,
                    0.033281393349170685,
                    0.21867425739765167,
                    0.09059278666973114,
                    0.14391331374645233,
                    0.38228073716163635,
                    0.17231646180152893,
                    0.02053600735962391,
                    0.07881812006235123,
                    0.16563135385513306,
                    0.013167199678719044,
                    -0.1523853987455368,
                    -0.145340234041214,
                    0.09806892275810242,
                    -0.08187054097652435,
                    0.36025309562683105,
                    0.04817090556025505,
                    -0.022384162992239,
                    0.08731979876756668,
                    -0.026000818237662315,
                    0.16893891990184784,
                    0.06320946663618088,
                    0.29876619577407837,
                    0.09070491790771484,
                    0.31064310669898987,
                    0.509814977645874,
                    0.06418872624635696,
                    -0.2636723220348358,
                    0.579890787601471,
                    -0.4109611213207245,
                    -0.09228610247373581,
                    0.4856049716472626,
                    -0.6819617748260498,
                    -0.061292607337236404,
                    -0.22360090911388397,
                    -0.24063824117183685,
                    -0.2130366563796997
                ]
            },
            "forgetHidden": {
                "rows": 20,
                "columns": 20,
                "weights": [
                    -0.20270510017871857,
                    0.009899883531033993,
                    0.03183332458138466,
                    0.6531851291656494,
                    -0.10433685034513474,
                    0.10066438466310501,
                    -0.0645005851984024,
                    -0.48995545506477356,
                    -0.2725866138935089,
                    -0.5718122720718384,
                    0.4797822833061218,
                    -0.7601447105407715,
                    0.021585730835795403,
                    -0.20145781338214874,
                    -0.09323325008153915,
                    -0.1964411735534668,
                    0.11636825650930405,
                    -0.238199844956398,
                    0.09064673632383347,
                    0.31528687477111816,
                    -0.2846573293209076,
                    0.29378044605255127,
                    0.0425649918615818,
                    -0.10671796649694443,
                    0.2929823100566864,
                    -0.2827802002429962,
                    0.2108057141304016,
                    -0.4738537669181824,
                    0.34275031089782715,
                    -0.6001792550086975,
                    0.4302377998828888,
                    -0.6398313045501709,
                    -0.10380465537309647,
                    0.27824637293815613,
                    -0.30494967103004456,
                    0.013645146042108536,
                    -0.04801635816693306,
                    -0.44197532534599304,
                    -0.2621192932128906,
                    -0.04283133149147034,
                    0.16748353838920593,
                    -0.2762499451637268,
                    -0.3265363276004791,
                    0.5133103132247925,
                    -0.3630378246307373,
                    0.1837741732597351,
                    -0.06931941956281662,
                    -0.1069808155298233,
                    -0.3296910226345062,
                    -0.35084083676338196,
                    0.7639629244804382,
                    -0.34755411744117737,
                    0.2828940451145172,
                    -0.06575120240449905,
                    0.23266401886940002,
                    -0.443588525056839,
                    0.07571475952863693,
                    -0.09008107334375381,
                    0.16904088854789734,
                    0.43258392810821533,
                    -0.302797794342041,
                    0.02370213344693184,
                    -0.09032956510782242,
                    -0.43728116154670715,
                    0.3366530239582062,
                    -0.05458865314722061,
                    -0.14813020825386047,
                    0.07846888899803162,
                    0.03659503161907196,
                    0.10927669703960419,
                    -1.0391603708267212,
                    0.34669312834739685,
                    0.1738540679216385,
                    -0.03532883897423744,
                    0.08630657941102982,
                    0.6520779728889465,
                    -0.052634723484516144,
                    0.035725660622119904,
                    0.16664302349090576,
                    -0.6195974946022034,
                    -0.1083621233701706,
                    0.5452634692192078,
                    0.3671843409538269,
                    0.6937379240989685,
                    -0.18374666571617126,
                    0.14357726275920868,
                    0.05885707214474678,
                    -0.09221364557743073,
                    -0.07209564745426178,
                    -0.4036993086338043,
                    0.7512000799179077,
                    -0.3771404027938843,
                    -0.6129159331321716,
                    -0.002131098648533225,
                    -0.07273209095001221,
                    -0.15834859013557434,
                    0.00016591278836131096,
                    -0.2522951066493988,
                    -0.5091984272003174,
                    0.2561972737312317,
                    -0.1495652198791504,
                    0.16868244111537933,
                    0.1629699170589447,
                    -0.16403914988040924,
                    0.21727901697158813,
                    -0.20659129321575165,
                    0.4666277766227722,
                    -0.32825967669487,
                    0.18933048844337463,
                    -0.38535597920417786,
                    0.16086509823799133,
                    -0.48857468366622925,
                    -0.12177205085754395,
                    0.3983824849128723,
                    -0.4696972072124481,
                    0.36434313654899597,
                    -0.1658635437488556,
                    -0.45908576250076294,
                    -0.28298771381378174,
                    0.10880113393068314,
                    -0.07599276304244995,
                    -0.3984386622905731,
                    -0.3262838125228882,
                    0.1701239049434662,
                    0.054323483258485794,
                    0.42300713062286377,
                    -0.2473505139350891,
                    0.11901520192623138,
                    -0.34231099486351013,
                    0.05783582106232643,
                    -0.004002452362328768,
                    0.11099862307310104,
                    0.3483230173587799,
                    -0.5907002091407776,
                    0.5134671330451965,
                    -0.3096778988838196,
                    0.27183428406715393,
                    0.5532958507537842,
                    0.23046788573265076,
                    0.35860103368759155,
                    0.6511241793632507,
                    -0.3812653720378876,
                    -0.3247208595275879,
                    -0.032887812703847885,
                    -0.669265627861023,
                    0.13682657480239868,
                    -0.1195937842130661,
                    0.5024646520614624,
                    -0.8126146197319031,
                    0.5358904600143433,
                    -0.05644610524177551,
                    0.5906596779823303,
                    0.371029257774353,
                    -0.5690641403198242,
                    0.3097265958786011,
                    0.0943584069609642,
                    0.06297137588262558,
                    0.3733838200569153,
                    0.47627055644989014,
                    0.27856776118278503,
                    -0.22582751512527466,
                    0.4905923008918762,
                    0.474435955286026,
                    0.6194809079170227,
                    -0.09984084218740463,
                    0.08927846699953079,
                    0.2903338670730591,
                    -0.15508608520030975,
                    0.03314468264579773,
                    -0.40193745493888855,
                    0.7721342444419861,
                    -0.43500733375549316,
                    -0.6076814532279968,
                    0.08033476024866104,
                    -0.02164408192038536,
                    0.14405721426010132,
                    -0.014860402792692184,
                    -0.4501761496067047,
                    -0.629207193851471,
                    0.07783617079257965,
                    0.2715568542480469,
                    -0.19778233766555786,
                    -0.09057897329330444,
                    -0.1518339216709137,
                    -0.0031745692249387503,
                    -0.08341597765684128,
                    0.1818189024925232,
                    0.8556939363479614,
                    -0.2933918833732605,
                    0.5959705114364624,
                    -0.813111424446106,
                    0.3934699296951294,
                    0.42033326625823975,
                    -0.13201822340488434,
                    0.18818910419940948,
                    0.05207010731101036,
                    -0.037867672741413116,
                    0.05682259798049927,
                    0.3749776780605316,
                    -0.010410339571535587,
                    0.49788543581962585,
                    -0.24370476603507996,
                    -0.2893325984477997,
                    -0.6868029236793518,
                    -0.46552547812461853,
                    0.2863292396068573,
                    0.29274871945381165,
                    0.4841337502002716,
                    -0.3966025114059448,
                    0.9104791283607483,
                    0.09769569337368011,
                    0.6853652000427246,
                    0.25869908928871155,
                    -0.5452367067337036,
                    0.24375225603580475,
                    -0.32999104261398315,
                    -0.13599763810634613,
                    -0.08291661739349365,
                    -0.36312398314476013,
                    0.40196341276168823,
                    0.3805009722709656,
                    -0.19569043815135956,
                    -0.11963000893592834,
                    0.0316881388425827,
                    -0.4325840473175049,
                    -0.08279801160097122,
                    0.09973292052745819,
                    0.5064284801483154,
                    -0.5519312620162964,
                    0.5788675546646118,
                    -0.25862476229667664,
                    0.020566286519169807,
                    0.15364021062850952,
                    -0.24979107081890106,
                    0.2499413788318634,
                    -0.04663917422294617,
                    0.022996962070465088,
                    -0.1590958535671234,
                    0.13085751235485077,
                    0.331993043422699,
                    0.4231565594673157,
                    -0.2548576295375824,
                    -0.4947783350944519,
                    0.47710031270980835,
                    -0.47091296315193176,
                    0.4031042456626892,
                    0.18311981856822968,
                    -0.04969797283411026,
                    -0.4696159064769745,
                    -0.15482735633850098,
                    0.47882017493247986,
                    -0.2702009379863739,
                    0.26476702094078064,
                    -0.3552720546722412,
                    0.19953463971614838,
                    -0.3228778839111328,
                    0.4205971956253052,
                    -0.15117478370666504,
                    0.21660779416561127,
                    0.5385368466377258,
                    -0.1591343730688095,
                    -0.15916147828102112,
                    0.0349498987197876,
                    0.2826906442642212,
                    0.027146195992827415,
                    0.07262644916772842,
                    0.5508710145950317,
                    -0.2943978011608124,
                    0.12112926691770554,
                    -0.25709372758865356,
                    0.4610651433467865,
                    -0.2067994773387909,
                    0.06214199960231781,
                    0.3797292411327362,
                    0.12371012568473816,
                    -0.08042893558740616,
                    0.0787000060081482,
                    0.1350773572921753,
                    -0.13504019379615784,
                    -0.17887172102928162,
                    -0.15240833163261414,
                    0.18479742109775543,
                    0.23679521679878235,
                    -0.010270394384860992,
                    0.28640761971473694,
                    -0.3517646789550781,
                    0.40474623441696167,
                    -0.2945547103881836,
                    0.1803683340549469,
                    -0.29733356833457947,
                    -0.04220696538686752,
                    -0.25874409079551697,
                    -0.1511777639389038,
                    0.6635756492614746,
                    -0.4164639115333557,
                    0.5544835925102234,
                    -0.1056356206536293,
                    -0.4155507981777191,
                    -0.06958385556936264,
                    -0.060271162539720535,
                    0.1829163283109665,
                    0.027736831456422806,
                    0.0418492816388607,
                    -0.19960755109786987,
                    -0.18352945148944855,
                    -0.17626060545444489,
                    0.3505556881427765,
                    -0.08460342884063721,
                    0.03424186632037163,
                    0.033261146396398544,
                    0.40030789375305176,
                    -0.28410518169403076,
                    -0.05703737586736679,
                    0.15891578793525696,
                    -0.4232232868671417,
                    0.46817848086357117,
                    -0.23788557946681976,
                    -0.7878081202507019,
                    -0.4639703333377838,
                    0.15690626204013824,
                    -0.4032594859600067,
                    -0.03933732956647873,
                    -0.03409309685230255,
                    0.1897166222333908,
                    0.3145814836025238,
                    0.16379469633102417,
                    -0.16922956705093384,
                    -0.04741361737251282,
                    0.17249152064323425,
                    -0.17241166532039642,
                    0.05968568101525307,
                    0.017048701643943787,
                    0.042642075568437576,
                    0.11041907966136932,
                    0.05178764835000038,
                    0.3964284062385559,
                    0.08253934234380722,
                    0.08601149171590805,
                    -0.025770630687475204,
                    -0.11838851869106293,
                    0.007820739410817623,
                    -0.09813925623893738,
                    -0.11656764894723892,
                    0.15567229688167572,
                    -0.19086572527885437,
                    0.07312969863414764,
                    0.07488938421010971,
                    -0.03535294905304909,
                    -0.015923218801617622,
                    -0.1674790382385254,
                    0.008757954463362694,
                    -0.11765346676111221,
                    0.2032746523618698,
                    0.13610431551933289,
                    -0.07974128425121307,
                    0.7474040985107422,
                    0.17568019032478333,
                    -0.47728466987609863,
                    0.1487027257680893,
                    0.45753276348114014,
                    -1.0712895393371582,
                    0.051175203174352646,
                    0.1654321700334549,
                    0.24809235334396362,
                    1.056146264076233,
                    0.09079461544752121,
                    -0.2388610988855362,
                    -0.6329179406166077,
                    0.6604260206222534,
                    -0.8077782392501831,
                    -0.01727764680981636,
                    -0.5458315014839172,
                    -0.19131556153297424,
                    -0.033889833837747574,
                    0.19268666207790375,
                    1.0194034576416016,
                    0.009492617100477219,
                    0.18199020624160767,
                    -0.26197636127471924,
                    -0.0975029468536377,
                    -0.15706954896450043,
                    -0.21818950772285461,
                    -0.17557339370250702,
                    -0.007873035967350006,
                    -0.09019210934638977,
                    0.3015105724334717,
                    0.48799842596054077,
                    -0.3588135838508606,
                    -0.05056392401456833,
                    -0.19124606251716614,
                    0.9367088675498962,
                    -0.41063183546066284,
                    0.3818216919898987,
                    -0.09989599138498306,
                    0.06453665345907211,
                    -0.480243057012558,
                    0.028864910826086998,
                    0.2432740330696106,
                    -0.06945567578077316,
                    0.29835447669029236
                ]
            },
            "forgetBias": {
                "rows": 20,
                "columns": 1,
                "weights": [
                    0,
                    0,
                    0,
                    0,
                    0,
                    0,
                    0,
                    0,
                    0,
                    0,
                    0,
                    0,
                    0,
                    0,
                    0,
                    0,
                    0,
                    0,
                    0,
                    0
                ]
            },
            "outputMatrix": {
                "rows": 20,
                "columns": 10,
                "weights": [
                    -0.6293802857398987,
                    0.7458587884902954,
                    -0.6499999761581421,
                    -0.6098116040229797,
                    0.9248738288879395,
                    0.39055776596069336,
                    -0.6026369333267212,
                    -0.8985746502876282,
                    -0.9502386450767517,
                    -0.664921760559082,
                    0.15672430396080017,
                    0.24823758006095886,
                    0.15004011988639832,
                    -0.21263830363750458,
                    -0.029606547206640244,
                    0.2584231197834015,
                    -0.23164047300815582,
                    -0.3611990213394165,
                    -0.36454981565475464,
                    -0.2041725218296051,
                    -0.20085814595222473,
                    0.44167497754096985,
                    -0.3504774272441864,
                    -0.12051617354154587,
                    0.3874264061450958,
                    -0.1762702316045761,
                    -0.2911648750305176,
                    -0.350248783826828,
                    -0.3790832757949829,
                    -0.22933700680732727,
                    0.01128319650888443,
                    0.15402603149414062,
                    -0.12882140278816223,
                    -0.34623822569847107,
                    0.17527015507221222,
                    0.05573118478059769,
                    -0.21936266124248505,
                    -0.5134425759315491,
                    -0.5570967793464661,
                    -0.23681208491325378,
                    -0.8238527178764343,
                    1.0321688652038574,
                    -0.759098470211029,
                    -0.994125485420227,
                    0.4463527500629425,
                    0.5923851132392883,
                    -0.8986691236495972,
                    -0.7706044912338257,
                    -0.9028413891792297,
                    -1.0364816188812256,
                    0.28032007813453674,
                    0.2006654441356659,
                    0.148707777261734,
                    -0.06218363717198372,
                    -0.45713937282562256,
                    -0.29193928837776184,
                    -0.2698921859264374,
                    -0.22782599925994873,
                    -0.24309293925762177,
                    -0.031022734940052032,
                    0.8510916829109192,
                    -0.5502468943595886,
                    1.0091572999954224,
                    0.5665172934532166,
                    -0.5637416243553162,
                    0.4555937349796295,
                    0.34702977538108826,
                    1.4519239664077759,
                    0.6698110699653625,
                    0.4362708032131195,
                    -0.7589127421379089,
                    0.5439249277114868,
                    -0.6871073246002197,
                    -0.6665583848953247,
                    0.8902925252914429,
                    0.6147803664207458,
                    -0.4303368628025055,
                    -0.7254816889762878,
                    -0.9515239596366882,
                    -0.6657649874687195,
                    -0.7710979580879211,
                    1.01399827003479,
                    -0.8581380248069763,
                    -0.7254868149757385,
                    0.6490046977996826,
                    0.07293261587619781,
                    -0.6743072867393494,
                    -0.5917949080467224,
                    -0.5674716234207153,
                    -0.9149283766746521,
                    -0.5094226002693176,
                    0.574100136756897,
                    -0.4479307234287262,
                    -0.40186306834220886,
                    0.8902837634086609,
                    0.6184590458869934,
                    -0.1760934442281723,
                    -0.5701873302459717,
                    -0.7436403036117554,
                    -0.6164465546607971,
                    -1.1116669178009033,
                    0.835981547832489,
                    -1.2536687850952148,
                    -0.5810806155204773,
                    0.5189746618270874,
                    0.09513276815414429,
                    -0.5335639715194702,
                    0.2891080379486084,
                    -0.6979981660842896,
                    -0.747017502784729,
                    -0.28527915477752686,
                    0.4666171073913574,
                    -0.3118417263031006,
                    -0.3075171411037445,
                    0.421205073595047,
                    0.5388542413711548,
                    -0.19844256341457367,
                    -0.5388928055763245,
                    -0.8081051707267761,
                    -0.545831561088562,
                    0.008232311345636845,
                    0.5005791783332825,
                    -0.014307267963886261,
                    -0.3594289720058441,
                    0.32726192474365234,
                    0.026367641985416412,
                    -0.5772637128829956,
                    -0.33795711398124695,
                    -0.31569600105285645,
                    -0.43760451674461365,
                    -1.1768077611923218,
                    0.6197319030761719,
                    -1.4190713167190552,
                    0.4250318109989166,
                    1.7548613548278809,
                    -0.9493885636329651,
                    0.25293150544166565,
                    0.38119593262672424,
                    0.013589826412498951,
                    0.014983393251895905,
                    0.33599093556404114,
                    -0.20718899369239807,
                    0.3935050368309021,
                    0.4382598102092743,
                    -0.17161932587623596,
                    -0.042370546609163284,
                    0.34031298756599426,
                    0.5140045285224915,
                    0.26054972410202026,
                    0.29975399374961853,
                    -0.46846213936805725,
                    0.4602581858634949,
                    -0.562515377998352,
                    -0.023257723078131676,
                    -0.2932851016521454,
                    -1.6623197793960571,
                    -0.30387359857559204,
                    0.27345404028892517,
                    -0.3281293511390686,
                    -0.08055557310581207,
                    0.298408567905426,
                    -0.23664723336696625,
                    0.3146127462387085,
                    0.12241435796022415,
                    0.0005534096271730959,
                    -0.0600876659154892,
                    0.1901063770055771,
                    0.007959130220115185,
                    0.28948739171028137,
                    0.335929274559021,
                    0.7377138137817383,
                    -0.3840027153491974,
                    0.6528880596160889,
                    0.8978727459907532,
                    -0.34007275104522705,
                    -0.3804360032081604,
                    0.9260956048965454,
                    1.6893032789230347,
                    1.9170176982879639,
                    0.6229754090309143,
                    0.10145510733127594,
                    0.2656194269657135,
                    -0.025121040642261505,
                    -0.0424201525747776,
                    0.17428180575370789,
                    -0.14499090611934662,
                    -0.1675405204296112,
                    -0.46509745717048645,
                    0.018338961526751518,
                    0.021919358521699905,
                    -0.5105082392692566,
                    0.2752191126346588,
                    -0.4950208365917206,
                    -0.342260479927063,
                    -0.0978129580616951,
                    -0.4693767726421356,
                    -0.6138504147529602,
                    -0.22920648753643036,
                    -0.6124849319458008,
                    -0.33236393332481384
                ]
            },
            "outputHidden": {
                "rows": 20,
                "columns": 20,
                "weights": [
                    0.4473533630371094,
                    0.17674505710601807,
                    0.16418732702732086,
                    0.03823597729206085,
                    -0.7908005714416504,
                    -0.08541888743638992,
                    -0.016043756157159805,
                    0.3763093054294586,
                    -0.859307587146759,
                    -0.23852577805519104,
                    0.09084784239530563,
                    -0.24096302688121796,
                    0.06198197603225708,
                    -0.2661997377872467,
                    0.032741278409957886,
                    -0.18450745940208435,
                    0.10207121819257736,
                    -0.23962092399597168,
                    0.17110463976860046,
                    0.16972702741622925,
                    -0.04390478506684303,
                    -0.3985263407230377,
                    -0.4616429805755615,
                    1.0446465015411377,
                    0.030870288610458374,
                    0.5061087608337402,
                    -0.5212348103523254,
                    -0.8484295606613159,
                    0.16866534948349,
                    -0.816046416759491,
                    0.8482581973075867,
                    -0.8808212876319885,
                    0.5404579043388367,
                    -0.09329576045274734,
                    0.45482975244522095,
                    -1.145687222480774,
                    0.3044905960559845,
                    0.2573119103908539,
                    0.756442129611969,
                    0.3359799087047577,
                    -0.23074232041835785,
                    -0.2064957618713379,
                    -0.278192937374115,
                    1.0810164213180542,
                    0.1968999058008194,
                    0.4012162387371063,
                    0.29015064239501953,
                    -0.8708515763282776,
                    0.38692882657051086,
                    -0.736249566078186,
                    1.0823054313659668,
                    -0.7192357182502747,
                    0.3857693076133728,
                    0.03376397490501404,
                    0.25155577063560486,
                    -0.9831393957138062,
                    0.2630121409893036,
                    0.014676111750304699,
                    0.3521912395954132,
                    0.6374768018722534,
                    0.1621139645576477,
                    -0.6276373863220215,
                    -0.6076722145080566,
                    -0.0914900079369545,
                    -0.10709267854690552,
                    0.26996999979019165,
                    -0.5412722826004028,
                    0.856732189655304,
                    0.06708434224128723,
                    0.7965120673179626,
                    -0.3305542767047882,
                    1.028810977935791,
                    0.9270468354225159,
                    -0.12173052877187729,
                    0.21689893305301666,
                    -0.6147581338882446,
                    0.36497583985328674,
                    0.40110787749290466,
                    0.594505786895752,
                    0.004607071168720722,
                    0.9617948532104492,
                    -0.177048459649086,
                    -0.19144105911254883,
                    0.4644029140472412,
                    -0.8026294112205505,
                    0.07636293768882751,
                    0.2518509030342102,
                    0.5336564183235168,
                    -0.5603781342506409,
                    0.2640269696712494,
                    0.4044753909111023,
                    0.23178984224796295,
                    -0.009206710383296013,
                    -0.5437757968902588,
                    0.13132226467132568,
                    -0.06818680465221405,
                    0.2215890884399414,
                    -0.3455160856246948,
                    0.17763376235961914,
                    0.25632232427597046,
                    -0.14271359145641327,
                    0.178708016872406,
                    0.04717505723237991,
                    -0.012730075977742672,
                    0.30952805280685425,
                    -0.09793690592050552,
                    0.38798987865448,
                    -0.9091717004776001,
                    0.5478333234786987,
                    -0.8510074019432068,
                    1.0677682161331177,
                    -1.2588386535644531,
                    0.1534862518310547,
                    0.546056866645813,
                    -0.4709538519382477,
                    -0.43886685371398926,
                    0.04284876585006714,
                    -0.747499942779541,
                    0.2338407188653946,
                    0.14082737267017365,
                    -0.5139684081077576,
                    0.08527170121669769,
                    0.03637273982167244,
                    -0.49910128116607666,
                    0.6731665134429932,
                    -0.1533275842666626,
                    0.13057048618793488,
                    0.2657001316547394,
                    0.7979145050048828,
                    0.4678255319595337,
                    0.09991168230772018,
                    0.40388813614845276,
                    0.22494155168533325,
                    0.12913818657398224,
                    -0.3614865839481354,
                    -0.34651005268096924,
                    -0.25809749960899353,
                    -0.5939961075782776,
                    -0.20456136763095856,
                    -0.094920814037323,
                    0.8899394273757935,
                    0.22212521731853485,
                    0.00953918881714344,
                    -0.07531752437353134,
                    -1.0602723360061646,
                    -0.08039843291044235,
                    0.07380900532007217,
                    0.7755366563796997,
                    -1.1432909965515137,
                    0.345852255821228,
                    0.42719176411628723,
                    0.33107230067253113,
                    -0.13417832553386688,
                    -0.3640875518321991,
                    -0.059819694608449936,
                    -0.2957156002521515,
                    -0.10880541801452637,
                    -0.3019053041934967,
                    -0.17499464750289917,
                    0.43309542536735535,
                    1.346943736076355,
                    0.25259333848953247,
                    0.012901744805276394,
                    0.21224071085453033,
                    -0.7751253247261047,
                    -0.5782808065414429,
                    0.6587808728218079,
                    0.6632867455482483,
                    -0.3879920542240143,
                    0.10157977789640427,
                    0.14969347417354584,
                    0.07219185680150986,
                    -0.23486237227916718,
                    -0.2023962140083313,
                    -0.5582089424133301,
                    0.19080014526844025,
                    -0.20128385722637177,
                    -0.4682088792324066,
                    0.059322260320186615,
                    -0.005814296659082174,
                    0.6614722609519958,
                    -0.044450998306274414,
                    -0.17294763028621674,
                    -0.04613751918077469,
                    -1.0157994031906128,
                    -0.11904707551002502,
                    0.15970803797245026,
                    0.9188734292984009,
                    -1.1760385036468506,
                    0.3386371433734894,
                    -0.0019717018585652113,
                    0.4528050422668457,
                    0.1016034185886383,
                    -0.30114656686782837,
                    0.029184341430664062,
                    -0.24523264169692993,
                    -0.00485712056979537,
                    -0.029672741889953613,
                    0.3841996490955353,
                    0.21320518851280212,
                    0.313310831785202,
                    -0.2503371238708496,
                    -0.1633210927248001,
                    -0.15983633697032928,
                    -0.21411389112472534,
                    0.4250083565711975,
                    -0.6662687659263611,
                    0.5339699387550354,
                    -0.0650775209069252,
                    0.5301211476325989,
                    -0.8300424218177795,
                    0.39206284284591675,
                    0.27165183424949646,
                    -0.5702131390571594,
                    0.40066495537757874,
                    -0.07100359350442886,
                    0.39671289920806885,
                    -0.12434564530849457,
                    0.2776833176612854,
                    0.9826387763023376,
                    0.4031151533126831,
                    0.03701148182153702,
                    -0.00428201537579298,
                    0.03271735832095146,
                    -1.006366491317749,
                    -0.24853551387786865,
                    0.20323488116264343,
                    0.6156524419784546,
                    -1.066593050956726,
                    0.21622110903263092,
                    0.21505841612815857,
                    0.20036451518535614,
                    -0.09707038849592209,
                    -0.16555096209049225,
                    -0.27036428451538086,
                    -0.05809338390827179,
                    -0.17351418733596802,
                    -0.3494526445865631,
                    0.27798303961753845,
                    0.05949630215764046,
                    0.028765100985765457,
                    -0.2089073657989502,
                    -0.31960004568099976,
                    1.0708000659942627,
                    0.07390778511762619,
                    0.5279742479324341,
                    -0.36434614658355713,
                    -0.8254258036613464,
                    0.00657654507085681,
                    -0.6065529584884644,
                    0.7342549562454224,
                    -0.5525432229042053,
                    0.3627108633518219,
                    -0.09372790902853012,
                    0.35586443543434143,
                    -0.8744395971298218,
                    0.626520574092865,
                    0.11470578610897064,
                    0.23079361021518707,
                    0.48453760147094727,
                    -0.20575620234012604,
                    0.15053626894950867,
                    0.28145602345466614,
                    0.13919734954833984,
                    -0.015024189837276936,
                    0.0695752426981926,
                    0.6860209703445435,
                    -0.4659646153450012,
                    0.3047531545162201,
                    -0.517815351486206,
                    0.6587319374084473,
                    -0.5817664265632629,
                    0.06462747603654861,
                    0.3876137137413025,
                    -0.1244954839348793,
                    -0.5528631210327148,
                    -0.25410595536231995,
                    0.16003863513469696,
                    -0.021114937961101532,
                    -0.04685795307159424,
                    -0.2412186861038208,
                    -0.09374678879976273,
                    -0.11849088221788406,
                    0.1623268574476242,
                    0.2679535150527954,
                    0.03786926344037056,
                    0.3099825978279114,
                    -0.6713716983795166,
                    0.39960014820098877,
                    -0.7498087882995605,
                    0.8075015544891357,
                    -0.9714344143867493,
                    0.29366081953048706,
                    0.5019569993019104,
                    -0.16908688843250275,
                    -0.6058995723724365,
                    0.16176986694335938,
                    -0.5776807069778442,
                    0.1943848878145218,
                    0.23482537269592285,
                    -0.34127143025398254,
                    0.2957612872123718,
                    0.22458212077617645,
                    -0.25810956954956055,
                    0.37999600172042847,
                    0.0908096507191658,
                    0.6736854910850525,
                    -1.1533443927764893,
                    0.7012397646903992,
                    -0.7396484613418579,
                    1.556241750717163,
                    -1.3233636617660522,
                    -0.34490400552749634,
                    -0.09956024587154388,
                    -0.7855831980705261,
                    0.6482089757919312,
                    -0.03772501274943352,
                    -1.6916654109954834,
                    -0.7885300517082214,
                    0.7336502075195312,
                    -0.545149564743042,
                    0.01213553175330162,
                    0.10128166526556015,
                    0.33488795161247253,
                    0.6525574922561646,
                    0.1306874305009842,
                    -0.36135923862457275,
                    -0.3513272702693939,
                    0.7605133056640625,
                    -0.1365726888179779,
                    0.45075368881225586,
                    -0.13608361780643463,
                    0.1381811499595642,
                    0.24299661815166473,
                    0.15429721772670746,
                    -0.20312952995300293,
                    0.03249040246009827,
                    0.5862292647361755,
                    -0.020350230857729912,
                    -0.10825373232364655,
                    0.02366362325847149,
                    -0.20238468050956726,
                    -0.036308903247117996,
                    0.061420951038599014,
                    0.3386213481426239,
                    0.20364518463611603,
                    -0.003610804909840226,
                    0.1093355342745781,
                    0.2941923439502716,
                    0.1638842672109604,
                    -0.1807727962732315,
                    0.3687077760696411,
                    0.22499509155750275,
                    0.9712942838668823,
                    0.03911922499537468,
                    0.13787278532981873,
                    0.10399627685546875,
                    -0.2794131636619568,
                    0.03444463759660721,
                    -0.8989404439926147,
                    -0.07125609368085861,
                    -0.3850886821746826,
                    -0.33119016885757446,
                    0.5847929120063782,
                    0.09074138104915619,
                    0.4789062440395355,
                    -0.35566991567611694,
                    0.13515183329582214,
                    0.015414823777973652,
                    0.17462022602558136,
                    0.9822195768356323,
                    0.11248786002397537,
                    0.27731505036354065,
                    -0.10176931321620941,
                    0.45662006735801697,
                    -0.7421698570251465,
                    0.18842025101184845,
                    0.5244876742362976,
                    -0.1298035830259323,
                    0.2638133764266968,
                    -0.6533533334732056,
                    0.7473703026771545,
                    0.30774304270744324,
                    -0.9265822172164917,
                    0.3601301908493042,
                    -0.1973736584186554,
                    0.11037520319223404,
                    -0.5530469417572021,
                    0.3455784022808075,
                    -0.6460014581680298,
                    0.9743021130561829,
                    -0.7956572771072388,
                    -0.3458777070045471,
                    -0.44743940234184265,
                    -0.44058698415756226,
                    -0.11265286803245544,
                    -0.6725891828536987,
                    -0.4877564609050751,
                    -0.8873357176780701,
                    0.26663413643836975
                ]
            },
            "outputBias": {
                "rows": 20,
                "columns": 1,
                "weights": [
                    -0.2140205055475235,
                    -0.48049646615982056,
                    0.14032883942127228,
                    -0.40371280908584595,
                    -0.03292559087276459,
                    -0.005119658540934324,
                    0.7915329933166504,
                    -0.5415392518043518,
                    0.5078340768814087,
                    -0.8101335167884827,
                    0.5005227327346802,
                    -0.5741672515869141,
                    -0.5894514322280884,
                    0.7065904140472412,
                    0.6393941044807434,
                    0.976334810256958,
                    -0.5490337014198303,
                    -0.025448832660913467,
                    -0.339030921459198,
                    -0.10532060265541077
                ]
            },
            "cellActivationMatrix": {
                "rows": 20,
                "columns": 10,
                "weights": [
                    -0.4605734944343567,
                    0.38099849224090576,
                    -0.5058389902114868,
                    -0.2658194601535797,
                    0.790905773639679,
                    0.19813261926174164,
                    -0.3760642111301422,
                    0.21253031492233276,
                    -0.38384345173835754,
                    -0.3756408989429474,
                    0.5366872549057007,
                    -0.30693164467811584,
                    0.4584963321685791,
                    0.4673633277416229,
                    -0.3873163163661957,
                    -0.206141859292984,
                    0.4832809865474701,
                    0.434476375579834,
                    0.49113574624061584,
                    0.5275861620903015,
                    0.3387359082698822,
                    -0.5772002935409546,
                    0.4450807571411133,
                    0.6397160291671753,
                    -0.437075674533844,
                    -0.34446802735328674,
                    0.5446100234985352,
                    0.8370862603187561,
                    0.5478968620300293,
                    0.49932152032852173,
                    0.3368123173713684,
                    -0.1334117203950882,
                    0.3387022316455841,
                    0.11715518683195114,
                    -0.4125818908214569,
                    -0.3616771697998047,
                    -0.07917651534080505,
                    -0.3567139506340027,
                    0.03664608672261238,
                    0.12571647763252258,
                    0.781859278678894,
                    -0.9875321984291077,
                    0.793974757194519,
                    0.622065544128418,
                    -0.4543333053588867,
                    -0.14413689076900482,
                    0.732117235660553,
                    0.9290803670883179,
                    0.8921064734458923,
                    0.6256330013275146,
                    -0.5039910674095154,
                    0.617158830165863,
                    -0.539352536201477,
                    -0.7528790235519409,
                    0.4104372262954712,
                    0.45187363028526306,
                    -0.6971785426139832,
                    -0.7545562982559204,
                    -0.7770413160324097,
                    -0.7421908974647522,
                    0.48880696296691895,
                    -0.14338277280330658,
                    0.5222591757774353,
                    0.3669610023498535,
                    -0.19925333559513092,
                    0.9380255937576294,
                    0.3469339907169342,
                    1.4773106575012207,
                    0.3395876884460449,
                    0.17880450189113617,
                    -0.4270121455192566,
                    0.31175196170806885,
                    -0.31324684619903564,
                    -0.3942120671272278,
                    0.8767409920692444,
                    1.1857651472091675,
                    -0.18884672224521637,
                    -0.14951035380363464,
                    -0.3496917188167572,
                    -0.3972214460372925,
                    0.641777753829956,
                    -0.874362587928772,
                    0.5069639682769775,
                    0.8546522259712219,
                    -0.2824660539627075,
                    -0.9313156008720398,
                    1.0913410186767578,
                    0.7631109356880188,
                    0.7033123970031738,
                    0.8960731625556946,
                    -0.3594190180301666,
                    0.43200424313545227,
                    -0.4090298116207123,
                    -0.3612745702266693,
                    0.7033512592315674,
                    0.5945943593978882,
                    -0.2857436239719391,
                    -0.020773794502019882,
                    -0.23661690950393677,
                    -0.4622666537761688,
                    0.222310408949852,
                    -0.23704864084720612,
                    0.27503034472465515,
                    -0.013899506069719791,
                    -0.38978999853134155,
                    -0.03531378507614136,
                    -0.1283053308725357,
                    -0.5365533232688904,
                    -0.05979100614786148,
                    0.16879163682460785,
                    -0.12929363548755646,
                    0.3706777095794678,
                    -0.11567281186580658,
                    -0.11483887583017349,
                    0.6934009790420532,
                    0.5965271592140198,
                    -0.08723385632038116,
                    -0.04930771514773369,
                    0.03515724837779999,
                    -0.15997692942619324,
                    -0.48713481426239014,
                    0.48695480823516846,
                    -0.5164987444877625,
                    -0.37814152240753174,
                    0.3209629952907562,
                    0.2627631425857544,
                    -0.4974367916584015,
                    -0.4835076332092285,
                    -0.6405597925186157,
                    -0.6237276196479797,
                    0.3870581090450287,
                    -0.7123807668685913,
                    0.2544541358947754,
                    0.8487185835838318,
                    0.042397186160087585,
                    -0.4260845184326172,
                    0.9201669096946716,
                    1.2238167524337769,
                    1.199139952659607,
                    0.7031692266464233,
                    -0.5039809346199036,
                    0.5948737263679504,
                    -0.5670943260192871,
                    -0.7547794580459595,
                    0.210296630859375,
                    0.16468483209609985,
                    -0.679283082485199,
                    -0.9695679545402527,
                    -0.8892726302146912,
                    -0.5719035267829895,
                    0.4700123369693756,
                    -0.615571141242981,
                    0.3493117392063141,
                    0.6688629388809204,
                    -0.3464823067188263,
                    -0.794924259185791,
                    0.6937513947486877,
                    0.9187139272689819,
                    0.6889137625694275,
                    0.6581159830093384,
                    -0.1486823707818985,
                    0.017009427770972252,
                    -0.11932677775621414,
                    -0.3052743971347809,
                    -0.2780162990093231,
                    -0.2155984342098236,
                    -0.3188376724720001,
                    -0.6231233477592468,
                    -0.4951685667037964,
                    -0.23341000080108643,
                    -0.12072327733039856,
                    0.4566464424133301,
                    -0.17101408541202545,
                    -0.8910992741584778,
                    0.34284165501594543,
                    0.4945152699947357,
                    -0.8904391527175903,
                    -0.38655874133110046,
                    -0.32731419801712036,
                    -0.8214430212974548,
                    0.021874740719795227,
                    -0.16712182760238647,
                    0.003743452951312065,
                    -0.008119386620819569,
                    -0.3222925662994385,
                    -0.3829578161239624,
                    -0.06993619352579117,
                    -0.5813820958137512,
                    -0.4406375586986542,
                    0.03685523942112923,
                    -0.020845048129558563,
                    0.26069146394729614,
                    -0.15707923471927643,
                    -0.4037378132343292,
                    -0.17452077567577362,
                    0.34826910495758057,
                    -0.5357344746589661,
                    -0.8699128031730652,
                    -0.6330485939979553,
                    -0.27860426902770996
                ]
            },
            "cellActivationHidden": {
                "rows": 20,
                "columns": 20,
                "weights": [
                    -0.8917579054832458,
                    -0.10451488196849823,
                    -0.08443345129489899,
                    0.5289992690086365,
                    -0.06843452900648117,
                    0.16225750744342804,
                    -0.03333432972431183,
                    -0.8546280860900879,
                    -0.32502827048301697,
                    -0.6540770530700684,
                    0.5824766159057617,
                    -0.3568343222141266,
                    0.0371781550347805,
                    -0.35099974274635315,
                    0.09824167937040329,
                    0.02645101398229599,
                    0.39219874143600464,
                    0.04931814596056938,
                    0.12943454086780548,
                    0.33945122361183167,
                    -0.26055118441581726,
                    -0.4040285050868988,
                    -0.16383704543113708,
                    0.7298941612243652,
                    0.3553604185581207,
                    -0.16732417047023773,
                    -0.5389448404312134,
                    -0.708585262298584,
                    0.42716795206069946,
                    -0.13870006799697876,
                    -0.4672197997570038,
                    -0.0024933558888733387,
                    0.07789584994316101,
                    0.9142062664031982,
                    0.007146034389734268,
                    0.3214320242404938,
                    0.28741130232810974,
                    0.5523877143859863,
                    0.8953343033790588,
                    -0.2467154711484909,
                    -0.753365695476532,
                    0.05763551965355873,
                    -0.02644186280667782,
                    0.06155598536133766,
                    0.39811971783638,
                    0.000474711850984022,
                    -0.0059911771677434444,
                    -0.5355075001716614,
                    0.36230722069740295,
                    -0.05222040042281151,
                    -0.11622259765863419,
                    0.0557633638381958,
                    -0.12118372321128845,
                    0.3236790895462036,
                    -0.05789002403616905,
                    0.1469874233007431,
                    0.0493297353386879,
                    -0.08706726878881454,
                    0.22429810464382172,
                    0.09569865465164185,
                    -0.03485823795199394,
                    0.6563711166381836,
                    0.3194069266319275,
                    -1.0186939239501953,
                    -0.14227168262004852,
                    0.042541950941085815,
                    1.2460073232650757,
                    -0.1412673443555832,
                    -0.14586740732192993,
                    -0.2220611870288849,
                    1.5409363508224487,
                    -1.0636818408966064,
                    -0.26225072145462036,
                    -0.42755427956581116,
                    -0.2771693766117096,
                    -0.047860369086265564,
                    -0.33696991205215454,
                    -0.6469483971595764,
                    -1.360987663269043,
                    0.938985288143158,
                    -0.020392242819070816,
                    -0.222347691655159,
                    -0.19326968491077423,
                    -0.4814607799053192,
                    -0.11401280015707016,
                    0.04003705456852913,
                    -0.0015075256815180182,
                    0.041033342480659485,
                    -0.3088475465774536,
                    0.5008246898651123,
                    -0.32288289070129395,
                    0.5498780608177185,
                    0.22083356976509094,
                    -0.30491071939468384,
                    -0.020500117912888527,
                    0.19513732194900513,
                    -0.11089087277650833,
                    0.007341981865465641,
                    0.08595144003629684,
                    0.1419525295495987,
                    0.15384279191493988,
                    0.42125532031059265,
                    0.36271703243255615,
                    -0.5082018971443176,
                    -0.19014927744865417,
                    -0.06204769015312195,
                    0.3317812383174896,
                    0.6467300057411194,
                    -0.1962260603904724,
                    -0.004109089262783527,
                    0.08107233047485352,
                    0.030301546677947044,
                    -0.33130595088005066,
